Language model created by QuickLM on Thu Dec  7 01:25:24 EST 2023
Copyright (c) 1996-2010 Carnegie Mellon University and Alexander I. Rudnicky

The model is in standard ARPA format, designed by Doug Paul while he was at MITRE.

The code that was used to produce this language model is available in Open Source.
Please visit http://www.speech.cs.cmu.edu/tools/ for more information

The (fixed) discount mass is 0.5. The backoffs are computed using the ratio method.
This model based on a corpus of 10 sentences and 11 words

\data\
ngram 1=11
ngram 2=19
ngram 3=20

\1-grams:
-0.9031 </s> -0.3010
-0.9031 <s> -0.2430
-1.6021 CHROME -0.2430
-1.3010 CLOSE -0.2553
-1.6021 EXCEL -0.2430
-1.6021 MUSIC -0.2430
-1.3010 OPEN -0.2553
-1.6021 PAINT -0.2430
-1.9031 PLAY -0.2900
-1.9031 STOP -0.2900
-1.6021 YOUTUBE -0.2430

\2-grams:
-0.6990 <s> CLOSE 0.0000
-0.6990 <s> OPEN 0.0000
-1.3010 <s> PLAY 0.0000
-1.3010 <s> STOP 0.0000
-0.3010 CHROME </s> -0.3010
-0.9031 CLOSE CHROME 0.0000
-0.9031 CLOSE EXCEL 0.0000
-0.9031 CLOSE PAINT 0.0000
-0.9031 CLOSE YOUTUBE 0.0000
-0.3010 EXCEL </s> -0.3010
-0.3010 MUSIC </s> -0.3010
-0.9031 OPEN CHROME 0.0000
-0.9031 OPEN EXCEL 0.0000
-0.9031 OPEN PAINT 0.0000
-0.9031 OPEN YOUTUBE 0.0000
-0.3010 PAINT </s> -0.3010
-0.3010 PLAY MUSIC 0.0000
-0.3010 STOP MUSIC 0.0000
-0.3010 YOUTUBE </s> -0.3010

\3-grams:
-0.9031 <s> CLOSE CHROME
-0.9031 <s> CLOSE EXCEL
-0.9031 <s> CLOSE PAINT
-0.9031 <s> CLOSE YOUTUBE
-0.9031 <s> OPEN CHROME
-0.9031 <s> OPEN EXCEL
-0.9031 <s> OPEN PAINT
-0.9031 <s> OPEN YOUTUBE
-0.3010 <s> PLAY MUSIC
-0.3010 <s> STOP MUSIC
-0.3010 CLOSE CHROME </s>
-0.3010 CLOSE EXCEL </s>
-0.3010 CLOSE PAINT </s>
-0.3010 CLOSE YOUTUBE </s>
-0.3010 OPEN CHROME </s>
-0.3010 OPEN EXCEL </s>
-0.3010 OPEN PAINT </s>
-0.3010 OPEN YOUTUBE </s>
-0.3010 PLAY MUSIC </s>
-0.3010 STOP MUSIC </s>

\end\